digraph Tree {
node [shape=box, style="filled, rounded", color="black", fontname=helvetica] ;
edge [fontname=helvetica] ;
0 [label="sepal length (cm) <= 5.45\ngini = 0.66\nsamples = 99\nvalue = [53, 53, 44]\nclass = setosa", fillcolor="#ffffff"] ;
1 [label="petal width (cm) <= 0.75\ngini = 0.27\nsamples = 33\nvalue = [48, 8, 1]\nclass = setosa", fillcolor="#ea985d"] ;
0 -> 1 [labeldistance=2.5, labelangle=45, headlabel="True"] ;
2 [label="gini = 0.0\nsamples = 27\nvalue = [48, 0, 0]\nclass = setosa", fillcolor="#e58139"] ;
1 -> 2 ;
3 [label="petal width (cm) <= 1.55\ngini = 0.2\nsamples = 6\nvalue = [0, 8, 1]\nclass = versicolor", fillcolor="#52e891"] ;
1 -> 3 ;
4 [label="gini = 0.0\nsamples = 5\nvalue = [0, 8, 0]\nclass = versicolor", fillcolor="#39e581"] ;
3 -> 4 ;
5 [label="gini = 0.0\nsamples = 1\nvalue = [0, 0, 1]\nclass = virginica", fillcolor="#8139e5"] ;
3 -> 5 ;
6 [label="petal width (cm) <= 1.75\ngini = 0.55\nsamples = 66\nvalue = [5, 45, 43]\nclass = versicolor", fillcolor="#f7fefa"] ;
0 -> 6 [labeldistance=2.5, labelangle=-45, headlabel="False"] ;
7 [label="sepal width (cm) <= 3.45\ngini = 0.27\nsamples = 38\nvalue = [5, 44, 3]\nclass = versicolor", fillcolor="#5be996"] ;
6 -> 7 ;
8 [label="sepal width (cm) <= 2.25\ngini = 0.12\nsamples = 34\nvalue = [0, 44, 3]\nclass = versicolor", fillcolor="#46e78a"] ;
7 -> 8 ;
9 [label="gini = 0.0\nsamples = 1\nvalue = [0, 0, 1]\nclass = virginica", fillcolor="#8139e5"] ;
8 -> 9 ;
10 [label="petal length (cm) <= 5.05\ngini = 0.08\nsamples = 33\nvalue = [0, 44, 2]\nclass = versicolor", fillcolor="#42e687"] ;
8 -> 10 ;
11 [label="gini = 0.0\nsamples = 30\nvalue = [0, 43, 0]\nclass = versicolor", fillcolor="#39e581"] ;
10 -> 11 ;
12 [label="sepal length (cm) <= 6.05\ngini = 0.44\nsamples = 3\nvalue = [0, 1, 2]\nclass = virginica", fillcolor="#c09cf2"] ;
10 -> 12 ;
13 [label="gini = 0.0\nsamples = 1\nvalue = [0, 1, 0]\nclass = versicolor", fillcolor="#39e581"] ;
12 -> 13 ;
14 [label="gini = 0.0\nsamples = 2\nvalue = [0, 0, 2]\nclass = virginica", fillcolor="#8139e5"] ;
12 -> 14 ;
15 [label="gini = 0.0\nsamples = 4\nvalue = [5, 0, 0]\nclass = setosa", fillcolor="#e58139"] ;
7 -> 15 ;
16 [label="petal width (cm) <= 1.85\ngini = 0.05\nsamples = 28\nvalue = [0, 1, 40]\nclass = virginica", fillcolor="#843ee6"] ;
6 -> 16 ;
17 [label="petal length (cm) <= 4.95\ngini = 0.17\nsamples = 8\nvalue = [0, 1, 10]\nclass = virginica", fillcolor="#8e4de8"] ;
16 -> 17 ;
18 [label="sepal width (cm) <= 3.1\ngini = 0.44\nsamples = 3\nvalue = [0, 1, 2]\nclass = virginica", fillcolor="#c09cf2"] ;
17 -> 18 ;
19 [label="gini = 0.0\nsamples = 2\nvalue = [0, 0, 2]\nclass = virginica", fillcolor="#8139e5"] ;
18 -> 19 ;
20 [label="gini = 0.0\nsamples = 1\nvalue = [0, 1, 0]\nclass = versicolor", fillcolor="#39e581"] ;
18 -> 20 ;
21 [label="gini = 0.0\nsamples = 5\nvalue = [0, 0, 8]\nclass = virginica", fillcolor="#8139e5"] ;
17 -> 21 ;
22 [label="gini = 0.0\nsamples = 20\nvalue = [0, 0, 30]\nclass = virginica", fillcolor="#8139e5"] ;
16 -> 22 ;
}